{"dense_bias": [1882, 7290, -3220, -3212, -2238, -5057, 964, -6501, 6977, 323], "dense_weights": [-266, -133, 633, 366, -566, -1432, 266, 266, -1565, -3430, 0, 366, -67, 167, 366, 200, -33, 333, -67, -233, 167, -300, -300, 0, -133, -333, -433, 167, 167, 233, -433, -167, 133, 167, 167, -500, -33, 167, -433, -799, 266, -1365, 100, -133, 400, 67, 533, -233, 300, 33, 33, -33, -167, -67, 100, -133, -500, 100, -67, -33, -699, 333, -1199, -699, 266, -633, 833, 266, -500, -1066, 100, -799, -67, -67, 33, -167, -100, 33, 200, 67, -633, -67, 533, 466, 633, -1798, -699, 266, -599, -3630, -400, -33, -266, 133, 566, 333, -733, 366, -200, -533, 167, -999, -133, 33, -200, 33, -200, 167, 133, 266, -200, -167, 200, 200, -833, -100, -833, 167, -33, 133, 133, 33, 266, -133, 133, 33, 100, -233, 266, 100, 33, -233, -33, 33, 67, 67, -466, 133, 67, 33, -433, 366, -633, -300, 699, 133, 699, 266, -433, -1499, 100, -699, 0, -33, 33, 100, -33, 33, 167, 167, -133, -200, 333, 300, 200, -799, -699, 67, -167, -599, -133, 333, -466, 100, 466, 366, -799, 366, -33, -233, -33, -533, -233, 233, -167, 366, -266, 333, 67, 433, 0, -533, 67, 100, -1332, 100, -466, 33, 100, 133, 133, 233, 67, -33, 167, 133, 300, -466, 133, 0, 133, 33, 167, 200, -33, 167, -366, 200, 167, 200, -200, 533, -167, 100, 599, 67, 33, 167, -366, -599, -67, -33, -500, -266, -100, 67, 466, -266, -100, 200, 33, 33, 200, 400, -200, -433, -899, 133, -300, 500, -433, 333, -699, -1732, 699, 333, 366, 300, -266, -300, -100, -300, -533, -167, 67, 366, 167, 533, 67, 400, 200, -1099, 133, 200, -1066, 266, -33, 100, 333, 233, 100, 233, -799, -699, 333, 67, 366, -1166, -200, -966, 33, -100, 0, 100, -67, -33, -266, 33, 33, 67, 200, 433, 333, -400, 533, -266, -300, 33, -133, -200, -200, 466, -1698, -1032, 566, 400, 666, 266, -133, -167, 33, -966, -266, -33, -100, -699, -766, 133, -67, 333, -33, 400, -433, -699, 333, -266, 633, -400, -366, -266, -133, -799, -833, -1066, 466, 533, 266, 333, 233, -167, 33, -1332, -167, -233, -1399, 200, -100, -466, 167, -67, -633, 566, -1998, -3097, 1166, 566, 833, -1665, 233, -1132, 200, -100, 67, 167, 67, 100, -133, 100, 133, 100, -100, 466, -633, -1532, 500, -799, -999, 100, 133, -133, -300, 500, -1332, -533, 533, 866, 899, -200, 133, -1665, -366, 67, 233, 300, 100, -266, 0, 366, 33, -633, -433, 100, 400, 466, -233, -300, -566, 366, -167, -599, 433, -799, 366, 333, 400, -766, 33, 133, -500, -200, -300, 67, 167, 233, -67, -200, -1132, 433, 266, -200, 200, -1099, -266, -533, 67, -100, 167, 67, 167, 200, 500, 67, -33, -366, 266, -699, -233, 366, -233, -266, 100, 0, -1032, -366, 400, 0, 633, 0, -167, 0, 366, -633, -67, -699, 67, 0, 100, -266, -233, 100, -533, -167, 133, 67, -1032, -466, -1399, 167, -333, -599, -466, -133, 333, 366, 167, -566, -233, 233, -433, -1232, 133, 100, 433, 533, -400, -300, 67, 333, -466, -366, -333, -100, -67, -33, -400, -233, -1465, 67, -33, -133, 67, -333, -233, -533, 100, 0, 33, 33, 67, 133, 167, -100, 133, 300, 67, -67, -533, 400, -100, -266, 167, -699, -300, -699, 300, 100, 200, 0, -33, -100, 266, 0, -266, -100, 300, 266, 599, -500, -666, -100, 200, -300, 333, 67, -633, 0, -500, 300, -33, -133, -33, -200, 200, 266, -366, -67, 200, 67, -400, -167, -400, 133, 266, 366, -533, 33, 300, 200, -233, -100, 167, -366, 133, 200, -233, 266, -333, 366, 300, 233, 0, 0, -366, -633, -33, 0, 133, -300, -133, 0, -133, -366, 167, 167, -67, 100, -633, 366, 0, -200, 0, 300, -33, 67, 133, 200, 100, -33, 0, -533, -466, 233, -133, -333, 200, -200, 433, -1066, -433, -699, 533, 266, 67, -932, -1832, 400, 400, -533, 0, -67, -233, -400, -266, -766, 0, 233, 67, -533, -333, -167, -633, -666, -67, -67, -633, 300, 300, -400, 133, 100, 233, -1432, -67, 33, -533, 233, -33, 266, 100, 100, -266, 366, 0, -466, 633, -233, 233, -300, 67, -67, -33, 167, -100, -366, -333, 133, 266, 100, -300, -133, -100, 100, 167, -366, 200, -400, -699, 167, -200, -133, -433, 333, 167, 533, 266, -266, 333, 133, 67, -400, -366, -1232, -833, -133, -100, 733, 599, -433, -233, 133, -366, 333, -799, -366, -400, 533, 466, -266, -100, -200, -766, -67, -932, -533, -33, 599, 533, -566, 266, 266, 266, -666, -366, -500, -766, 266, 67, -33, 266, -67, -500, -100, -67, 500, 533, -533, -366, -300, 233, -733, 33, -1166, -133, -400, -200, -133, 333, 33, -266, 0, 466, -633, 400, -833, 266, -2597, -866, -266, 67, 67, -899, 100, 100, 466, 167, 0, 133, 200, 100, -233, -599, 200, 167, 100, 233, 100, -833, 333, 266, 67, -799, 33, 366, 533, -766, 0, -666, 366, -400, -899, -233, -100, 599, 466, -500, -133, -1132, 466, 33, -999, -699, -33, -167, 33, 366, 200, -233, 266, 366, 300, 300, -1265, 67, -633, 266, -200, 200, 100, -167, 333, -699, -400, 433, 167, -599, 200, -1232, 133, 67, -1499, 0, -666, -1732, -233, -167, -333, -67, -33, -566, -100, -33, -500, 333, -200, 0, -200, -233, -167, -200, -1099, -466, -33, 0, 167, 100, 266, -1299, 200, 100, 100, -466, 266, 433, 433, -2331, -67, -999, 433, -799, -500, -799, 266, 400, 333, -799, 33, -932, 400, -366, -433, -666, -366, 67, -33, 266, 133, -433, -200, 133, 333, 300, 167, 167, -67, 266, 133, 300, -67, -100, 266, -1299, -200, 699, 500, -533, 67, -932, 833, 266, -100, 300, -666, -633, -100, 133, 100, 233, 400, -67, -67, -133, 200, 466, 167, 0, -932, 333, 500, -167, -33, 200, -633, -33, 100, -300, 200, -500, 200, -799, 167, 200, 67, 233, 200, -699, -100, -366, 366, -733, 0, 33, -167, 100, -67, -167, -67, -433, 100, -633, -33, -533, -1332, -67, 167, 333, 200, 200, -233, 133, 300, -366, 167, 67, 133, -133, -200, 167, 233, -433, -233, -733, -2231, 466, -133, 67, 67, -200, 33, -167, -167, 67, 266, 0, 233, -167, 266, -100, 33, -200, -400, 500, -633, 300, -533, 533, -200, 366, 500, -533, 167, 733, -899, -599, -133, -1032, 400, 300, -67, -566, -300, 167, -1032, -33, -366, -533, 200, 0, 167, -533, -133, 400, -599, 200, 300, -1132, 167, 333, -133, 200, 33, -333, -1532, -167, 133, 0, 133, 233, -33, 67, -233, 200, -400, 133, -1265, 300, -1665, 133, 333, 133, -167, -566, 133, 0, -333, -300, 366, 533, -666, -233, -67, 33, 133, 33, -233, 33, -167, -466, 300, -566, 67, -100, 167, 266, 67, 0, -833, -33, 200, -100, 200, -1199, -1066, -899, 333, -233, 666, 266, -233, 167, -500, -1299, -133, -133, 167, -433, 433, -67, -133, 200, -167, -999, 0, 0, 33, 100, 266, -200, -333, 366, -100, -266, -1099, 0, -67, 33, 100, 300, 100, 167, -1066, 167, -67, 500, 566, -167, -3263, -1365, -167, 366, 133, -799, -333, 67, 233, -167, 466, 433, 33, -233, -67, 466, -400, 266, -566, 67, -266, 0, 266, -733, 100, -67, 33, 300, 100, 167, -1565, -1066, 233, 300, 200, -167, -233, -33, 33, 333, 167, 100, 233, 133, 266, -1099, 233, 100, 366, 200, 333, -500, 433, -333, -200, -833, 599, 100, 67, 300, -33, -1665, 333, 67, -533, -100, -200, -233, -167, 67, -200, -133, -300, -400, 67, 400, 167, 533, -33, 0, -200, 233, -633, 400, -333, -1898, 466, 133, 433, 100, 433, -1166, 0, -133, -133, 100, -1399, -599, 133, 167, -133, -100, -67, -699, -200, -999, 200, 333, 133, -1332, 33, -1232, 67, 266, -533, -699, -67, -266, 266, 266, 266, -466, 67, -100, 266, -1066, 333, 0, 266, 233, 266, -1365, 366, -599, 133, -300, 366, 133, 433, 266, 400, -1299, 466, -633, 167, 167, -300, 133, 133, 466, 266, 200, 133, 0, 500, 200, 167, 433, -433, -200, -500, 200, 100, 266, -133, -466, 266, -67, 400, -266, 366, -566, 0, -599, 300, 266, -33, -100, -67, -200, 33, 266, -133, 33, -466, 400, 233, 300, -133, -400, -400, -366, 766, -400, -599, -366, -466, -300, 233, 200, 167, -300, -300, -266, 133, -366, -1132, -999, 100, 100, 167, -766, 0, -366, 200, -67, -633, -33, 366, 33, 167, -433, -266, -133, 333, 100, -733, 133, 133, 333, 133, 233, 0, 0, 233, 100, 133, 200, -400, -266, -366, 133, 233, -233, -167, 233, 266, -233, 167, -200, 67, -433, -233, -1332, 33, -67, 266, -133, -466, 100, -167, -67, 67, 33, 67, 666, 200, 366, -400, -866, -133, -67, 366, -266, -1032, -266, -300, 100, 233, -67, 167, 0, 100, 233, -433, -533, 466, 67, -200, 233, -67, -433, 133, -33, -133, -133, -699, 33, -133, -100, -500, -233, -266, 167, -167, -100, -133, 167, 67, 133, -133, 67, 167, 33, -633, 500, 167, 167, -400, -699, -100, 33, 500, -733, -167, 599, -733, -100, 67, -699, 233, 133, -1132, -366, -1332, 0, 100, -333, -133, 266, -100, -366, 33, -167, 266, 167, 366, 333, 0, 266, 133, -133, 433, -100, 333, -1399, 366, 566, 33, 433, -533, -666, 233, 433, -533, -167, 0, 0, -266, 200, -766, -533, 200, 133, 167, 433, -366, 300, -799, 533, -866, 233, 433, 200, -167, -300, 266, 533, -167, 167, -433, 33, 233, 67, -833, 599, -433, 0, 133, 266, -333, 466, 566, -599, 466, -1432, 400, 699, 500, -266, 500, 333, -33, 333, -699, 400, -599, -266, 0, 233, 167, -33, -33, -67, 300, 300, -699, 200, 200, 300, 67, 266, 366, 33, 333, 0, -67, 100, -67, 33, 33, 33, -233, -33, 0, -400, 67, -33, 0, 266, 0, -300, 0, -566, -100, -400, 133, 133, -100, 233, -133, -233, 266, -766, -200, -33, 33, 33, 100, -400, -33, -333, -799, 0, -333, 133, 333, 233, -200, 33, -433, -1299, 300, 266, 200, -1332, 566, -799, 666, 300, 466, -466, -33, -1565, 333, 167, -67, 133, 266, -899, -67, -2065, -67, -67, -899, -3796, -833, -866, 666, -266, 500, -2997, 33, -1499, 100, -33, -100, 33, -67, -33, 0, 33, -167, -133, -33, -233, 200, 333, 300, 366, 400, -167, 300, -366, 366, -366, -100, 67, 33, -100, 67, -233, -133, -400, 33, 100, -200, 33, 133, -333, 133, 67, -599, 133, -100, -1332, 133, 133, -266, 167, -500, -1865, 167, 133, 266, -200, 333, -833, 466, -466, 400, -666, -1066, -1232, 200, -67, 233, -266, -500, 100, -300, -100, -100, -167, -366, -633, 366, -366, 733, -100, 566, -1499, 400, -999, -33, -67, 100, 33, -133, -33, -133, 100, -500, -266, -200, 200, 67, 233, 33, 200, 200, 133, 33, -400, 300, -67, -200, 167, 100, -300, 100, 100, -466, -67, 0, 200, -33, 100, 100, -366, 133, 200, -599, 200, -167, 100, 67, -100, 167, 300, -33, -866, 400, -400, 433, 366, 266, -699, 266, -1032, 300, 67, -1565, -33, 200, -1166, 300, -533, -566, 200, -666, -500, 266, -67, 133, -500, 266, -366, -266, 167, 233, -999, 233, -400, 266, 0, 233, 300, -167, 200, -366, 266, 100, -366, -200, 200, -67, 33, -100, -33, -200, 100, 100, -366, 100, 67, -167, 33, 167, -233, 100, 167, -233, -167, -400, 167, 233, 233, 33, -100, 0, 300, -833, 100, -266, -233, -433, -1365, 233, -133, 333, -666, 366, -67, 200, 333, -599, -33, -67, -4229, 200, 33, -2498, 33, -33, -2031, 300, -400, -133, 433, -333, -1132, 433, -233, 400, 266, -33, -167, 400, 200, 400, 133, 233, 167, 300, -67, 0, 233, -733, 200, -1132, -167, 33, -1166, -200, 366, -133, 133, 133, 167, 33, 233, 266, -233, -33, 233, 167, 233, -67, 100, -200, 200, -33, -167, -633, -133, 366, 533, -466, 300, -466, 33, -833, -133, 33, 366, -1132, -699, 766, -500, 566, 333, -167, 300, -233, -1532, 833, 1232, 233, -366, 67, -699, -1199, 33, -633, -1632, 200, -133, -233, 566, -300, -1565, 233, 67, 666, 233, -433, -133, 300, -333, 200, 200, -133, 133, -133], "conv2d_1_bias": [-87, 265, -2, -179, -5, -356, -3, -14], "conv2d_1_weights": [-8, -8, 24, -48, -24, 160, 16, 40, -128, -16, 24, 40, -88, 136, 0, -64, 32, 72, -40, 32, -104, -72, -72, 136, 80, 201, -64, -24, 8, -433, -80, -48, -16, 40, 8, -32, -233, 32, -233, 32, 8, -56, 48, -80, -32, -48, -209, -144, 72, 88, 96, 72, 128, -96, -48, 80, 80, 64, 8, 16, -112, -56, 160, 40, 56, -56, -88, -32, -289, 48, 0, -594, 96, -979, -104, 144, 120, -168, -281, -32, 0, 104, 88, -48, 40, 64, -32, 233, 72, 136, 217, -32, 72, -24, -32, -144, 128, 40, 152, -16, -209, 32, 0, -40, -152, 24, -377, -32, -8, -64, -112, -32, 16, -72, -88, -32, 56, -48, 80, 8, -249, -281, 112, 64, 201, 32, -136, 249, -40, 96, 96, 32, -185, 120, -32, -24, -88, 168, -273, 96, -8, 16, 128, -217, 8, -225, 24, -136, 56, -40, 8, -64, -185, -104, -112, -80, -72, -8, 72, 152, 16, -104, -104, 16, -217, 32, 0, -273, -48, 80, 64, 48, 80, 32, -297, -16, -24, -32, -152, -80, 48, -345, -1019, -72, 160, -497, -321, 16, 72, -257, 0, -72, 56, -120, 112, 40, -401, -16, -40, -168, 24, -56, 72, -48, 16, -32, -273, -48, -80, 24, 104, -48, 72, 16, 209, -96, 160, -112, -193, -72, -225, 136, -185, -185, 233, -112, -48, 56, -136, 40, -8, -241, -40, -64, 112, 40, -48, -16, 72, 56, -32, 217, -72, -249, 40, 88, 48, 0, -96, 136, -120, 48, 104, 8, 337, -136, -56, 160, -160, 104, -168, -8, -594, -16, 104, -96, 88, 64, -16, 40, -120, 96, -24, 72, -56, -96, 72, -64, -289, 8, -385, 8, 24, 0, -104, 168, -144, 16], "conv2d_bias": [-359, -2, -1, 2], "conv2d_weights": [1, -2, -127, 7, 10, -2, -33, 2, 22, -11, 6, 9, -21, 0, -44, 9, 10, -33, 29, 7, 25, -4, 13, 4, -42, 9, -37, 4, -37, 20, -8, 9, -38, 28, 16, 12], "in": [[0, 0, 0, 0, 0, 0, 0, 0, 0, 0, 0, 0, 0, 0, 0, 0, 0, 0, 0, 0, 0, 0, 0, 0, 0, 0, 0, 0, 0, 0, 0, 0, 0, 0, 0, 0, 0, 0, 0, 0, 0, 0, 0, 0, 0, 0, 0, 0, 0, 0, 0, 0, 0, 0, 0, 0, 0, 0, 0, 0, 0, 0, 0, 0, 0, 0, 0, 0, 0, 0, 0, 0, 0, 0, 0, 0, 0, 0, 0, 0, 0, 0, 0, 0, 0, 0, 0, 0, 0, 0, 0, 0, 0, 0, 0, 0, 0, 0, 0, 0, 0, 0, 0, 0, 0, 0, 0, 0, 0, 0, 0, 0, 0, 0, 0, 0, 0, 0, 0, 0, 0, 0, 0, 0, 0, 0, 0, 0, 0, 0, 0, 0, 0, 0, 0, 0, 0, 0, 0, 0, 0, 0, 0, 0, 0, 0, 0, 0, 0, 0, 0, 0, 0, 0, 0, 0, 0, 0, 0, 0, 0, 0, 0, 0, 0, 0, 0, 0, 0, 0, 0, 0, 0, 0, 0, 0, 0, 0, 0, 0, 0, 0, 0, 0, 0, 0, 0, 0, 0, 0, 0, 0, 0, 0, 0, 0, 0, 0, 0, 0, 0, 0, 84, 185, 159, 151, 60, 36, 0, 0, 0, 0, 0, 0, 0, 0, 0, 0, 0, 0, 0, 0, 0, 0, 0, 0, 0, 0, 0, 0, 222, 254, 254, 254, 254, 241, 198, 198, 198, 198, 198, 198, 198, 198, 170, 52, 0, 0, 0, 0, 0, 0, 0, 0, 0, 0, 0, 0, 67, 114, 72, 114, 163, 227, 254, 225, 254, 254, 254, 250, 229, 254, 254, 140, 0, 0, 0, 0, 0, 0, 0, 0, 0, 0, 0, 0, 0, 0, 0, 0, 0, 17, 66, 14, 67, 67, 67, 59, 21, 236, 254, 106, 0, 0, 0, 0, 0, 0, 0, 0, 0, 0, 0, 0, 0, 0, 0, 0, 0, 0, 0, 0, 0, 0, 0, 0, 83, 253, 209, 18, 0, 0, 0, 0, 0, 0, 0, 0, 0, 0, 0, 0, 0, 0, 0, 0, 0, 0, 0, 0, 0, 0, 0, 22, 233, 255, 83, 0, 0, 0, 0, 0, 0, 0, 0, 0, 0, 0, 0, 0, 0, 0, 0, 0, 0, 0, 0, 0, 0, 0, 0, 129, 254, 238, 44, 0, 0, 0, 0, 0, 0, 0, 0, 0, 0, 0, 0, 0, 0, 0, 0, 0, 0, 0, 0, 0, 0, 0, 59, 249, 254, 62, 0, 0, 0, 0, 0, 0, 0, 0, 0, 0, 0, 0, 0, 0, 0, 0, 0, 0, 0, 0, 0, 0, 0, 0, 133, 254, 187, 5, 0, 0, 0, 0, 0, 0, 0, 0, 0, 0, 0, 0, 0, 0, 0, 0, 0, 0, 0, 0, 0, 0, 0, 9, 205, 248, 58, 0, 0, 0, 0, 0, 0, 0, 0, 0, 0, 0, 0, 0, 0, 0, 0, 0, 0, 0, 0, 0, 0, 0, 0, 126, 254, 182, 0, 0, 0, 0, 0, 0, 0, 0, 0, 0, 0, 0, 0, 0, 0, 0, 0, 0, 0, 0, 0, 0, 0, 0, 75, 251, 240, 57, 0, 0, 0, 0, 0, 0, 0, 0, 0, 0, 0, 0, 0, 0, 0, 0, 0, 0, 0, 0, 0, 0, 0, 19, 221, 254, 166, 0, 0, 0, 0, 0, 0, 0, 0, 0, 0, 0, 0, 0, 0, 0, 0, 0, 0, 0, 0, 0, 0, 0, 3, 203, 254, 219, 35, 0, 0, 0, 0, 0, 0, 0, 0, 0, 0, 0, 0, 0, 0, 0, 0, 0, 0, 0, 0, 0, 0, 0, 38, 254, 254, 77, 0, 0, 0, 0, 0, 0, 0, 0, 0, 0, 0, 0, 0, 0, 0, 0, 0, 0, 0, 0, 0, 0, 0, 31, 224, 254, 115, 1, 0, 0, 0, 0, 0, 0, 0, 0, 0, 0, 0, 0, 0, 0, 0, 0, 0, 0, 0, 0, 0, 0, 0, 133, 254, 254, 52, 0, 0, 0, 0, 0, 0, 0, 0, 0, 0, 0, 0, 0, 0, 0, 0, 0, 0, 0, 0, 0, 0, 0, 61, 242, 254, 254, 52, 0, 0, 0, 0, 0, 0, 0, 0, 0, 0, 0, 0, 0, 0, 0, 0, 0, 0, 0, 0, 0, 0, 0, 121, 254, 254, 219, 40, 0, 0, 0, 0, 0, 0, 0, 0, 0, 0, 0, 0, 0, 0, 0, 0, 0, 0, 0, 0, 0, 0, 0, 121, 254, 207, 18, 0, 0, 0, 0, 0, 0, 0, 0, 0, 0, 0, 0, 0, 0, 0, 0, 0, 0, 0, 0, 0, 0, 0, 0, 0, 0, 0, 0, 0, 0, 0, 0, 0, 0, 0, 0, 0, 0, 0, 0, 0, 0]]}